digraph Tree {
node [shape=box, style="filled, rounded", color="black", fontname="helvetica"] ;
edge [fontname="helvetica"] ;
0 [label="deposit_type_Non_Refund <= 0.5\ngini = 0.466\nsamples = 95364\nvalue = [60071.0, 35293.0]", fillcolor="#f4cbad"] ;
1 [label="lead_time <= 14.5\ngini = 0.406\nsamples = 83733\nvalue = [60000, 23733]", fillcolor="#efb387"] ;
0 -> 1 [labeldistance=2.5, labelangle=45, headlabel="True"] ;
2 [label="gini = 0.216\nsamples = 21134\nvalue = [18533, 2601]", fillcolor="#e99355"] ;
1 -> 2 ;
3 [label="gini = 0.447\nsamples = 62599\nvalue = [41467, 21132]", fillcolor="#f2c19e"] ;
1 -> 3 ;
4 [label="previous_bookings_not_canceled <= 0.5\ngini = 0.012\nsamples = 11631\nvalue = [71, 11560]", fillcolor="#3a9ee5"] ;
0 -> 4 [labeldistance=2.5, labelangle=-45, headlabel="False"] ;
5 [label="gini = 0.011\nsamples = 11621\nvalue = [63, 11558]", fillcolor="#3a9ee5"] ;
4 -> 5 ;
6 [label="gini = 0.32\nsamples = 10\nvalue = [8, 2]", fillcolor="#eca06a"] ;
4 -> 6 ;
}